digraph Tree {
node [shape=box, style="filled", color="black", fontname="helvetica"] ;
edge [fontname="helvetica"] ;
0 [label="petal width (cm) <= 0.8\ngini = 0.66\nsamples = 82\nvalue = [47, 33, 40]\nclass = setosa", fillcolor="#fdf4ee"] ;
1 [label="gini = 0.0\nsamples = 32\nvalue = [47, 0, 0]\nclass = setosa", fillcolor="#e58139"] ;
0 -> 1 [labeldistance=2.5, labelangle=45, headlabel="True"] ;
2 [label="petal length (cm) <= 4.75\ngini = 0.495\nsamples = 50\nvalue = [0, 33, 40]\nclass = virginica", fillcolor="#e9dcfa"] ;
0 -> 2 [labeldistance=2.5, labelangle=-45, headlabel="False"] ;
3 [label="petal length (cm) <= 4.45\ngini = 0.062\nsamples = 24\nvalue = [0, 30, 1]\nclass = versicolor", fillcolor="#40e685"] ;
2 -> 3 ;
4 [label="gini = 0.0\nsamples = 16\nvalue = [0, 22, 0]\nclass = versicolor", fillcolor="#39e581"] ;
3 -> 4 ;
5 [label="sepal width (cm) <= 2.65\ngini = 0.198\nsamples = 8\nvalue = [0, 8, 1]\nclass = versicolor", fillcolor="#52e891"] ;
3 -> 5 ;
6 [label="gini = 0.0\nsamples = 1\nvalue = [0, 0, 1]\nclass = virginica", fillcolor="#8139e5"] ;
5 -> 6 ;
7 [label="gini = 0.0\nsamples = 7\nvalue = [0, 8, 0]\nclass = versicolor", fillcolor="#39e581"] ;
5 -> 7 ;
8 [label="petal width (cm) <= 1.55\ngini = 0.133\nsamples = 26\nvalue = [0, 3, 39]\nclass = virginica", fillcolor="#8b48e7"] ;
2 -> 8 ;
9 [label="sepal length (cm) <= 6.6\ngini = 0.48\nsamples = 3\nvalue = [0, 2, 3]\nclass = virginica", fillcolor="#d5bdf6"] ;
8 -> 9 ;
10 [label="petal length (cm) <= 5.0\ngini = 0.375\nsamples = 2\nvalue = [0, 1, 3]\nclass = virginica", fillcolor="#ab7bee"] ;
9 -> 10 ;
11 [label="gini = 0.0\nsamples = 1\nvalue = [0, 1, 0]\nclass = versicolor", fillcolor="#39e581"] ;
10 -> 11 ;
12 [label="gini = 0.0\nsamples = 1\nvalue = [0, 0, 3]\nclass = virginica", fillcolor="#8139e5"] ;
10 -> 12 ;
13 [label="gini = 0.0\nsamples = 1\nvalue = [0, 1, 0]\nclass = versicolor", fillcolor="#39e581"] ;
9 -> 13 ;
14 [label="petal length (cm) <= 4.85\ngini = 0.053\nsamples = 23\nvalue = [0, 1, 36]\nclass = virginica", fillcolor="#843ee6"] ;
8 -> 14 ;
15 [label="sepal length (cm) <= 5.95\ngini = 0.375\nsamples = 3\nvalue = [0, 1, 3]\nclass = virginica", fillcolor="#ab7bee"] ;
14 -> 15 ;
16 [label="gini = 0.0\nsamples = 1\nvalue = [0, 1, 0]\nclass = versicolor", fillcolor="#39e581"] ;
15 -> 16 ;
17 [label="gini = 0.0\nsamples = 2\nvalue = [0, 0, 3]\nclass = virginica", fillcolor="#8139e5"] ;
15 -> 17 ;
18 [label="gini = 0.0\nsamples = 20\nvalue = [0, 0, 33]\nclass = virginica", fillcolor="#8139e5"] ;
14 -> 18 ;
}